{"learner":{"attributes":{"best_iteration":"15","best_score":"820.073974609375","scikit_learn":"{\"_estimator_type\": \"regressor\"}"},"feature_names":["lag_1","lag_7","lag_14","lag_30","rolling_mean_7","rolling_std_7","rolling_mean_30","horizon_step","target_day_of_week","target_is_weekend","target_month","target_is_sl_public_holiday","target_is_tariff_revision_day","target_days_since_tariff_revision"],"feature_types":["float","float","float","float","float","float","float","int","int","int","int","int","int","int"],"gradient_booster":{"model":{"cats":{"enc":[],"feature_segments":[],"sorted_idx":[]},"gbtree_model_param":{"num_parallel_tree":"1","num_trees":"36"},"iteration_indptr":[0,1,2,3,4,5,6,7,8,9,10,11,12,13,14,15,16,17,18,19,20,21,22,23,24,25,26,27,28,29,30,31,32,33,34,35,36],"tree_info":[0,0,0,0,0,0,0,0,0,0,0,0,0,0,0,0,0,0,0,0,0,0,0,0,0,0,0,0,0,0,0,0,0,0,0,0],"trees":[{"base_weights":[-2.031122E1,4.8677805E2,-1.4281152E3,-4.5587543E2,7.562873E2,-1.311563E3,-1.9533502E3,-1.1577458E2,-1.5788421E1,1.3883928E2,4.2155193E1,-2.5302444E2,-1.6119644E2,-3.2521237E2,-1.6215065E2],"categories":[],"categories_nodes":[],"categories_segments":[],"categories_sizes":[],"default_left":[0,0,0,0,0,0,0,0,0,0,0,0,0,0,0],"id":0,"left_children":[1,3,5,7,9,11,13,-1,-1,-1,-1,-1,-1,-1,-1],"loss_changes":[7.5611085E9,1.978528E9,1.6970957E8,2.660264E8,8.877025E8,4.471757E7,2.1098547E8,0E0,0E0,0E0,0E0,0E0,0E0,0E0,0E0],"parents":[2147483647,0,0,1,1,2,2,3,3,4,4,5,5,6,6],"right_children":[2,4,6,8,10,12,14,-1,-1,-1,-1,-1,-1,-1,-1],"split_conditions":[9E0,1.4571168E4,8.9E1,2E0,7.4E1,4E0,1E2,-1.1577458E2,-1.5788421E1,1.3883928E2,4.2155193E1,-2.5302444E2,-1.6119644E2,-3.2521237E2,-1.6215065E2],"split_indices":[10,6,13,10,13,13,13,0,0,0,0,0,0,0,0],"split_type":[0,0,0,0,0,0,0,0,0,0,0,0,0,0,0],"sum_hessian":[1.059E4,7.786E3,2.804E3,1.731E3,6.055E3,2.297E3,5.07E2,7.18E2,1.013E3,3.312E3,2.743E3,8.9E1,2.208E3,2.58E2,2.49E2],"tree_param":{"num_deleted":"0","num_feature":"14","num_nodes":"15","size_leaf_vector":"1"}},{"base_weights":[-7.5001316E0,4.3819614E2,-1.2542104E3,-4.0741516E2,6.519491E2,-1.1519061E3,-1.7116332E3,-9.458186E1,-1.7191126E1,1.2089952E2,3.7176098E1,-2.333128E2,-1.4178625E2,-2.8180417E2,-1.4318633E2],"categories":[],"categories_nodes":[],"categories_segments":[],"categories_sizes":[],"default_left":[0,0,0,0,0,0,0,0,0,0,0,0,0,0,0],"id":1,"left_children":[1,3,5,7,9,11,13,-1,-1,-1,-1,-1,-1,-1,-1],"loss_changes":[5.926354E9,1.4203337E9,1.2990822E8,1.4803966E8,6.9223885E8,3.683917E7,1.5343014E8,0E0,0E0,0E0,0E0,0E0,0E0,0E0,0E0],"parents":[2147483647,0,0,1,1,2,2,3,3,4,4,5,5,6,6],"right_children":[2,4,6,8,10,12,14,-1,-1,-1,-1,-1,-1,-1,-1],"split_conditions":[9E0,1.4531479E4,8.9E1,2E0,7.4E1,3E0,1E2,-9.458186E1,-1.7191126E1,1.2089952E2,3.7176098E1,-2.333128E2,-1.4178625E2,-2.8180417E2,-1.4318633E2],"split_indices":[10,6,13,10,13,13,13,0,0,0,0,0,0,0,0],"split_type":[0,0,0,0,0,0,0,0,0,0,0,0,0,0,0],"sum_hessian":[1.0664E4,7.856E3,2.808E3,1.585E3,6.271E3,2.297E3,5.11E2,6.96E2,8.89E2,3.352E3,2.919E3,7.3E1,2.224E3,2.64E2,2.47E2],"tree_param":{"num_deleted":"0","num_feature":"14","num_nodes":"15","size_leaf_vector":"1"}},{"base_weights":[1.4926088E1,3.9445056E2,-1.0958528E3,-6.8799347E2,5.0206747E2,-1.0060833E3,-1.4924003E3,-1.1936002E2,-4.0818424E1,7.364528E1,-4.4836025E1,-1.1982374E2,-1.5995824E2,-2.4672505E2,-1.26865074E2],"categories":[],"categories_nodes":[],"categories_segments":[],"categories_sizes":[],"default_left":[0,0,0,0,0,0,0,0,0,0,0,0,0,0,0],"id":2,"left_children":[1,3,5,7,9,11,13,-1,-1,-1,-1,-1,-1,-1,-1],"loss_changes":[4.4874086E9,9.24468E8,9.53303E7,6.798992E7,5.2017267E8,3.0144768E7,1.1185152E8,0E0,0E0,0E0,0E0,0E0,0E0,0E0,0E0],"parents":[2147483647,0,0,1,1,2,2,3,3,4,4,5,5,6,6],"right_children":[2,4,6,8,10,12,14,-1,-1,-1,-1,-1,-1,-1,-1],"split_conditions":[9E0,2E0,8.9E1,9.1E1,1E0,1.5629632E4,1E2,-1.1936002E2,-4.0818424E1,7.364528E1,-4.4836025E1,-1.1982374E2,-1.5995824E2,-2.4672505E2,-1.26865074E2],"split_indices":[10,10,13,13,11,4,13,0,0,0,0,0,0,0,0],"split_type":[0,0,0,0,0,0,0,0,0,0,0,0,0,0,0],"sum_hessian":[1.0643E4,7.933E3,2.71E3,7.17E2,7.216E3,2.212E3,4.98E2,4.16E2,3.01E2,6.574E3,6.42E2,1.85E3,3.62E2,2.51E2,2.47E2],"tree_param":{"num_deleted":"0","num_feature":"14","num_nodes":"15","size_leaf_vector":"1"}},{"base_weights":[1.5623107E0,3.347046E2,-9.5524786E2,-3.0945837E2,5.277469E2,-8.7917804E2,-1.2993198E3,-1.970868E2,-2.8691645E1,9.952855E1,2.5051117E1,-2.1455211E2,-1.0826471E2,-2.3488826E2,-1.2159396E2],"categories":[],"categories_nodes":[],"categories_segments":[],"categories_sizes":[],"default_left":[0,0,0,0,0,0,0,0,0,0,0,0,0,0,0],"id":3,"left_children":[1,3,5,7,9,11,13,-1,-1,-1,-1,-1,-1,-1,-1],"loss_changes":[3.411162E9,9.871949E8,7.144934E7,1.8676576E8,5.297787E8,3.2162688E7,9.287149E7,0E0,0E0,0E0,0E0,0E0,0E0,0E0,0E0],"parents":[2147483647,0,0,1,1,2,2,3,3,4,4,5,5,6,6],"right_children":[2,4,6,8,10,12,14,-1,-1,-1,-1,-1,-1,-1,-1],"split_conditions":[9E0,1.459753E4,8.9E1,3.3E1,7.4E1,2E0,9.7E1,-1.970868E2,-2.8691645E1,9.952855E1,2.5051117E1,-2.1455211E2,-1.0826471E2,-2.3488826E2,-1.2159396E2],"split_indices":[10,6,13,13,13,13,13,0,0,0,0,0,0,0,0],"split_type":[0,0,0,0,0,0,0,0,0,0,0,0,0,0,0],"sum_hessian":[1.07E4,7.937E3,2.763E3,1.83E3,6.107E3,2.265E3,4.98E2,1.1E2,1.72E3,3.384E3,2.723E3,4.6E1,2.219E3,1.82E2,3.16E2],"tree_param":{"num_deleted":"0","num_feature":"14","num_nodes":"15","size_leaf_vector":"1"}},{"base_weights":[2.510719E0,2.9309048E2,-8.326884E2,-6.0470355E2,3.8099506E2,-9.805872E2,-6.818446E2,-1.0665727E2,-3.393393E1,5.6981403E1,-4.8084084E1,-9.761921E1,-1.4230437E2,-9.246417E1,-1.3509641E1],"categories":[],"categories_nodes":[],"categories_segments":[],"categories_sizes":[],"default_left":[0,0,0,0,0,0,0,0,0,0,0,0,0,0,0],"id":4,"left_children":[1,3,5,7,9,11,13,-1,-1,-1,-1,-1,-1,-1,-1],"loss_changes":[2.6061612E9,6.289183E8,6.131712E7,5.785219E7,4.0123405E8,4.2537984E7,4.246605E7,0E0,0E0,0E0,0E0,0E0,0E0,0E0,0E0],"parents":[2147483647,0,0,1,1,2,2,3,3,4,4,5,5,6,6],"right_children":[2,4,6,8,10,12,14,-1,-1,-1,-1,-1,-1,-1,-1],"split_conditions":[9E0,2E0,1.1E1,9.1E1,1E0,3E0,6.8E1,-1.0665727E2,-3.393393E1,5.6981403E1,-4.8084084E1,-9.761921E1,-1.4230437E2,-9.246417E1,-1.3509641E1],"split_indices":[10,10,10,13,11,8,13,0,0,0,0,0,0,0,0],"split_type":[0,0,0,0,0,0,0,0,0,0,0,0,0,0,0],"sum_hessian":[1.0737E4,7.966E3,2.771E3,7.1E2,7.256E3,1.397E3,1.374E3,4.1E2,3E2,6.628E3,6.28E2,5.98E2,7.99E2,1.256E3,1.18E2],"tree_param":{"num_deleted":"0","num_feature":"14","num_nodes":"15","size_leaf_vector":"1"}},{"base_weights":[-1.331775E0,2.5399216E2,-7.3543854E2,-1.6774359E2,4.420973E2,-8.660109E2,-5.982072E2,-3.364816E1,8.2881775E1,8.581509E1,1.5491579E1,-8.607556E1,-1.2543759E2,-8.43135E1,-3.1214947E1],"categories":[],"categories_nodes":[],"categories_segments":[],"categories_sizes":[],"default_left":[0,0,0,0,0,0,0,0,0,0,0,0,0,0,0],"id":5,"left_children":[1,3,5,7,9,11,13,-1,-1,-1,-1,-1,-1,-1,-1],"loss_changes":[1.9936625E9,6.261176E8,4.877939E7,2.0150778E8,4.187899E8,3.306976E7,3.394483E7,0E0,0E0,0E0,0E0,0E0,0E0,0E0,0E0],"parents":[2147483647,0,0,1,1,2,2,3,3,4,4,5,5,6,6],"right_children":[2,4,6,8,10,12,14,-1,-1,-1,-1,-1,-1,-1,-1],"split_conditions":[9E0,1.5197918E4,1.1E1,1.21E2,7.5E1,3E0,6.3E1,-3.364816E1,8.2881775E1,8.581509E1,1.5491579E1,-8.607556E1,-1.2543759E2,-8.43135E1,-3.1214947E1],"split_indices":[10,6,10,13,13,8,13,0,0,0,0,0,0,0,0],"split_type":[0,0,0,0,0,0,0,0,0,0,0,0,0,0,0],"sum_hessian":[1.0635E4,7.891E3,2.744E3,2.434E3,5.457E3,1.404E3,1.34E3,2.172E3,2.62E2,3.109E3,2.348E3,5.94E2,8.1E2,1.109E3,2.31E2],"tree_param":{"num_deleted":"0","num_feature":"14","num_nodes":"15","size_leaf_vector":"1"}},{"base_weights":[4.2092786E0,2.3173386E2,-6.353554E2,4.5770523E2,-1.0392519E1,-4.888912E2,-7.3747565E2,2.5397326E1,2.529675E2,-1.0278807E2,3.899005E1,-8.644555E1,-4.007151E1,-1.3851445E2,-8.507423E1],"categories":[],"categories_nodes":[],"categories_segments":[],"categories_sizes":[],"default_left":[0,0,0,0,0,0,0,0,0,0,0,0,0,0,0],"id":6,"left_children":[1,3,5,7,9,11,13,-1,-1,-1,-1,-1,-1,-1,-1],"loss_changes":[1.5476516E9,4.2922022E8,4.1460736E7,1.612723E9,9.808083E8,3.8690464E7,3.5702144E7,0E0,0E0,0E0,0E0,0E0,0E0,0E0,0E0],"parents":[2147483647,0,0,1,1,2,2,3,3,4,4,5,5,6,6],"right_children":[2,4,6,8,10,12,14,-1,-1,-1,-1,-1,-1,-1,-1],"split_conditions":[9E0,7.4E1,5E1,6.2E1,9E1,2.3E1,6E1,2.5397326E1,2.529675E2,-1.0278807E2,3.899005E1,-8.644555E1,-4.007151E1,-1.3851445E2,-8.507423E1],"split_indices":[10,13,13,13,13,13,13,0,0,0,0,0,0,0,0],"split_type":[0,0,0,0,0,0,0,0,0,0,0,0,0,0,0],"sum_hessian":[1.0634E4,7.844E3,2.79E3,4.057E3,3.787E3,1.148E3,1.642E3,3.485E3,5.72E2,1.076E3,2.711E3,5.28E2,6.2E2,2.32E2,1.41E3],"tree_param":{"num_deleted":"0","num_feature":"14","num_nodes":"15","size_leaf_vector":"1"}},{"base_weights":[-7.0784326E0,1.8863086E2,-5.632216E2,2.1228521E1,4.7352032E2,-5.0355588E2,-8.346123E2,-3.3574173E1,2.7337898E1,1.078245E2,1.4768317E1,-1.2009652E2,-6.0769306E1,-1.6626266E2,-6.887553E1],"categories":[],"categories_nodes":[],"categories_segments":[],"categories_sizes":[],"default_left":[0,0,0,0,0,0,0,0,0,0,0,0,0,0,0],"id":7,"left_children":[1,3,5,7,9,11,13,-1,-1,-1,-1,-1,-1,-1,-1],"loss_changes":[1.171529E9,3.7969824E8,4.5041216E7,2.839541E8,4.0319354E8,2.0459392E7,6.99336E7,0E0,0E0,0E0,0E0,0E0,0E0,0E0,0E0],"parents":[2147483647,0,0,1,1,2,2,3,3,4,4,5,5,6,6],"right_children":[2,4,6,8,10,12,14,-1,-1,-1,-1,-1,-1,-1,-1],"split_conditions":[9E0,8.299445E2,8.9E1,1.526897E4,7.4E1,4E0,9.7E1,-3.3574173E1,2.7337898E1,1.078245E2,1.4768317E1,-1.2009652E2,-6.0769306E1,-1.6626266E2,-6.887553E1],"split_indices":[10,5,13,4,13,13,13,0,0,0,0,0,0,0,0],"split_type":[0,0,0,0,0,0,0,0,0,0,0,0,0,0,0],"sum_hessian":[1.0762E4,7.961E3,2.801E3,5.015E3,2.946E3,2.298E3,5.03E2,2.031E3,2.984E3,1.416E3,1.53E3,9.6E1,2.202E3,1.85E2,3.18E2],"tree_param":{"num_deleted":"0","num_feature":"14","num_nodes":"15","size_leaf_vector":"1"}},{"base_weights":[-7.0339286E-1,1.7300572E2,-4.966187E2,-2.0211104E2,3.3794733E2,-4.2897073E2,-6.5825836E2,-7.7539167E0,-7.069003E1,5.2503513E1,-6.935754E1,-5.2708015E1,-1.49741E2,-5.5903732E1,-1.0343965E2],"categories":[],"categories_nodes":[],"categories_segments":[],"categories_sizes":[],"default_left":[0,0,0,0,0,0,0,0,0,0,0,0,0,0,0],"id":8,"left_children":[1,3,5,7,9,11,13,-1,-1,-1,-1,-1,-1,-1,-1],"loss_changes":[9.1645824E8,4.8753155E8,2.995712E7,1.2175086E8,3.8880032E8,1.3856096E7,2.8301408E7,0E0,0E0,0E0,0E0,0E0,0E0,0E0,0E0],"parents":[2147483647,0,0,1,1,2,2,3,3,4,4,5,5,6,6],"right_children":[2,4,6,8,10,12,14,-1,-1,-1,-1,-1,-1,-1,-1],"split_conditions":[9E0,1.5197918E4,5E0,5E0,1E0,1E0,1.4154025E4,-7.7539167E0,-7.069003E1,5.2503513E1,-6.935754E1,-5.2708015E1,-1.49741E2,-5.5903732E1,-1.0343965E2],"split_indices":[10,6,8,8,11,12,6,0,0,0,0,0,0,0,0],"split_type":[0,0,0,0,0,0,0,0,0,0,0,0,0,0,0],"sum_hessian":[1.0637E4,7.878E3,2.759E3,2.406E3,5.472E3,1.947E3,8.12E2,1.732E3,6.74E2,5.022E3,4.5E2,1.924E3,2.3E1,3.55E2,4.57E2],"tree_param":{"num_deleted":"0","num_feature":"14","num_nodes":"15","size_leaf_vector":"1"}},{"base_weights":[3.336161E0,-2.4941853E2,2.0104222E2,-2.8300485E2,1.0950575E3,2.5508665E2,-4.4588467E2,-2.3906467E1,-6.4548515E1,1.6508484E2,1.1157431E2,5.4510918E1,3.0087628E0,4.4091995E1,-1.0415711E2],"categories":[],"categories_nodes":[],"categories_segments":[],"categories_sizes":[],"default_left":[0,0,0,0,0,0,0,0,0,0,0,0,0,0,0],"id":9,"left_children":[1,3,5,7,9,11,13,-1,-1,-1,-1,-1,-1,-1,-1],"loss_changes":[5.307712E8,2.1074717E8,2.0845858E8,9.724874E7,4.24592E6,2.2712675E8,1.4046926E8,0E0,0E0,0E0,0E0,0E0,0E0,0E0,0E0],"parents":[2147483647,0,0,1,1,2,2,3,3,4,4,5,5,6,6],"right_children":[2,4,6,8,10,12,14,-1,-1,-1,-1,-1,-1,-1,-1],"split_conditions":[1.5262944E4,1.29E2,1E0,5E0,3E0,7.5E1,4E1,-2.3906467E1,-6.4548515E1,1.6508484E2,1.1157431E2,5.4510918E1,3.0087628E0,4.4091995E1,-1.0415711E2],"split_indices":[6,13,11,8,8,13,13,0,0,0,0,0,0,0,0],"split_type":[0,0,0,0,0,0,0,0,0,0,0,0,0,0,0],"sum_hessian":[1.062E4,4.661E3,5.959E3,4.548E3,1.13E2,5.5E3,4.59E2,3.244E3,1.304E3,5.3E1,6E1,3.102E3,2.398E3,1.49E2,3.1E2],"tree_param":{"num_deleted":"0","num_feature":"14","num_nodes":"15","size_leaf_vector":"1"}},{"base_weights":[2.6764655E0,2.0588121E2,-3.1504254E2,5.5118787E2,-2.789819E1,-8.0164417E2,-2.693449E2,2.184423E1,3.679951E2,-8.488951E1,3.124077E1,-4.3847046E1,-1.5322879E2,1.6991055E0,-5.101076E1],"categories":[],"categories_nodes":[],"categories_segments":[],"categories_sizes":[],"default_left":[0,0,0,0,0,0,0,0,0,0,0,0,0,0,0],"id":10,"left_children":[1,3,5,7,9,11,13,-1,-1,-1,-1,-1,-1,-1,-1],"loss_changes":[6.866528E8,5.236611E8,9.208608E7,2.3485563E9,6.927364E8,6.692837E7,1.4651738E8,0E0,0E0,0E0,0E0,0E0,0E0,0E0,0E0],"parents":[2147483647,0,0,1,1,2,2,3,3,4,4,5,5,6,6],"right_children":[2,4,6,8,10,12,14,-1,-1,-1,-1,-1,-1,-1,-1],"split_conditions":[7E0,7.3E1,8E0,5E0,9E1,1.4647018E4,9E0,2.184423E1,3.679951E2,-8.488951E1,3.124077E1,-4.3847046E1,-1.5322879E2,1.6991055E0,-5.101076E1],"split_indices":[10,13,13,10,13,6,10,0,0,0,0,0,0,0,0],"split_type":[0,0,0,0,0,0,0,0,0,0,0,0,0,0,0],"sum_hessian":[1.0634E4,6.486E3,4.148E3,2.618E3,3.868E3,3.55E2,3.793E3,2.26E3,3.58E2,1.157E3,2.711E3,1.71E2,1.84E2,1.235E3,2.558E3],"tree_param":{"num_deleted":"0","num_feature":"14","num_nodes":"15","size_leaf_vector":"1"}},{"base_weights":[-3.2291443E0,1.7117274E2,-2.721016E2,-1.1027933E2,3.6669455E2,-9.224888E1,-3.6044058E2,1.2455371E2,-2.0469173E1,9.6675026E1,9.1235485E0,-1.26757034E2,6.6399727E0,-2.701456E1,-5.6609333E1],"categories":[],"categories_nodes":[],"categories_segments":[],"categories_sizes":[],"default_left":[0,0,0,0,0,0,0,0,0,0,0,0,0,0,0],"id":11,"left_children":[1,3,5,7,9,11,13,-1,-1,-1,-1,-1,-1,-1,-1],"loss_changes":[4.992365E8,3.5540307E8,6.6525184E7,1.5346821E8,4.5107606E8,1.8360122E8,3.669584E7,0E0,0E0,0E0,0E0,0E0,0E0,0E0,0E0],"parents":[2147483647,0,0,1,1,2,2,3,3,4,4,5,5,6,6],"right_children":[2,4,6,8,10,12,14,-1,-1,-1,-1,-1,-1,-1,-1],"split_conditions":[7E0,1.5307515E4,9E0,1.7E1,7.5E1,9E0,4.6E1,1.2455371E2,-2.0469173E1,9.6675026E1,9.1235485E0,-1.26757034E2,6.6399727E0,-2.701456E1,-5.6609333E1],"split_indices":[10,6,10,13,13,13,13,0,0,0,0,0,0,0,0],"split_type":[0,0,0,0,0,0,0,0,0,0,0,0,0,0,0],"sum_hessian":[1.0645E4,6.457E3,4.188E3,2.647E3,3.81E3,1.38E3,2.808E3,1.2E2,2.527E3,1.608E3,2.202E3,1.88E2,1.192E3,1.074E3,1.734E3],"tree_param":{"num_deleted":"0","num_feature":"14","num_nodes":"15","size_leaf_vector":"1"}},{"base_weights":[-9.015895E0,1.3868124E2,-2.3736113E2,-2.516864E2,2.616714E2,-6.000371E2,-2.0110222E2,-1.6740504E2,-2.1500929E1,7.2997116E1,6.539338E0,-3.1977297E1,-1.150582E2,3.5129566E0,-3.901308E1],"categories":[],"categories_nodes":[],"categories_segments":[],"categories_sizes":[],"default_left":[0,0,0,0,0,0,0,0,0,0,0,0,0,0,0],"id":12,"left_children":[1,3,5,7,9,11,13,-1,-1,-1,-1,-1,-1,-1,-1],"loss_changes":[3.601099E8,3.113462E8,5.5054944E7,1.3513104E8,3.298682E8,4.132973E7,9.549645E7,0E0,0E0,0E0,0E0,0E0,0E0,0E0,0E0],"parents":[2147483647,0,0,1,1,2,2,3,3,4,4,5,5,6,6],"right_children":[2,4,6,8,10,12,14,-1,-1,-1,-1,-1,-1,-1,-1],"split_conditions":[7E0,1.445434E4,8E0,3.3E1,7.4E1,1.4311606E4,9E0,-1.6740504E2,-2.1500929E1,7.2997116E1,6.539338E0,-3.1977297E1,-1.150582E2,3.5129566E0,-3.901308E1],"split_indices":[10,6,13,13,13,6,10,0,0,0,0,0,0,0,0],"split_type":[0,0,0,0,0,0,0,0,0,0,0,0,0,0,0],"sum_hessian":[1.0676E4,6.483E3,4.193E3,1.553E3,4.93E3,3.8E2,3.813E3,1.07E2,1.446E3,1.954E3,2.976E3,1.82E2,1.98E2,1.232E3,2.581E3],"tree_param":{"num_deleted":"0","num_feature":"14","num_nodes":"15","size_leaf_vector":"1"}},{"base_weights":[-3.9842322E0,1.3208896E2,-2.169448E2,-1.1121725E2,2.963353E2,-1.27930016E2,-3.6394992E2,-2.381335E1,6.719807E1,5.983772E1,-1.3745604E1,-5.9297504E1,-5.886044E0,-5.55134E1,-1.4867964E1],"categories":[],"categories_nodes":[],"categories_segments":[],"categories_sizes":[],"default_left":[0,0,0,0,0,0,0,0,0,0,0,0,0,0,0],"id":13,"left_children":[1,3,5,7,9,11,13,-1,-1,-1,-1,-1,-1,-1,-1],"loss_changes":[3.080833E8,2.5925126E8,5.420051E7,1.3224312E8,2.8249866E8,7.200971E7,2.9807216E7,0E0,0E0,0E0,0E0,0E0,0E0,0E0,0E0],"parents":[2147483647,0,0,1,1,2,2,3,3,4,4,5,5,6,6],"right_children":[2,4,6,8,10,12,14,-1,-1,-1,-1,-1,-1,-1,-1],"split_conditions":[7E0,1.5307515E4,5.7E1,1.21E2,1.6741416E4,1.1E1,1.1E1,-2.381335E1,6.719807E1,5.983772E1,-1.3745604E1,-5.9297504E1,-5.886044E0,-5.55134E1,-1.4867964E1],"split_indices":[10,6,13,13,6,13,10,0,0,0,0,0,0,0,0],"split_type":[0,0,0,0,0,0,0,0,0,0,0,0,0,0,0],"sum_hessian":[1.063E4,6.486E3,4.144E3,2.614E3,3.872E3,2.582E3,1.562E3,2.332E3,2.82E2,2.683E3,1.189E3,4.92E2,2.09E3,1.186E3,3.76E2],"tree_param":{"num_deleted":"0","num_feature":"14","num_nodes":"15","size_leaf_vector":"1"}},{"base_weights":[-5.625245E0,8.02536E1,-2.4690475E2,1.2781466E2,-4.0905878E2,-1.1683752E2,-3.2482886E2,2.868026E1,-1.4069673E1,-7.846879E1,5.438368E1,-3.528691E1,5.629159E0,-3.4057552E1,-7.765445E1],"categories":[],"categories_nodes":[],"categories_segments":[],"categories_sizes":[],"default_left":[0,0,0,0,0,0,0,0,0,0,0,0,0,0,0],"id":14,"left_children":[1,3,5,7,9,11,13,-1,-1,-1,-1,-1,-1,-1,-1],"loss_changes":[2.2155771E8,1.835599E8,2.8417968E7,1.7301709E8,1.2684496E8,2.7903344E7,2.7557632E7,0E0,0E0,0E0,0E0,0E0,0E0,0E0,0E0],"parents":[2147483647,0,0,1,1,2,2,3,3,4,4,5,5,6,6],"right_children":[2,4,6,8,10,12,14,-1,-1,-1,-1,-1,-1,-1,-1],"split_conditions":[9E0,1E0,4.6E1,5E0,9.8E1,2.3E1,6E0,2.868026E1,-1.4069673E1,-7.846879E1,5.438368E1,-3.528691E1,5.629159E0,-3.4057552E1,-7.765445E1],"split_indices":[10,11,13,8,13,13,8,0,0,0,0,0,0,0,0],"split_type":[0,0,0,0,0,0,0,0,0,0,0,0,0,0,0],"sum_hessian":[1.0691E4,7.885E3,2.806E3,7.187E3,6.98E2,1.052E3,1.754E3,5.066E3,2.121E3,5.56E2,1.42E2,5.22E2,5.3E2,1.483E3,2.71E2],"tree_param":{"num_deleted":"0","num_feature":"14","num_nodes":"15","size_leaf_vector":"1"}},{"base_weights":[-5.315913E0,9.655731E1,-1.673984E2,3.1764163E2,-5.715118E1,-1.3648808E2,-3.9777676E2,1.2548068E0,2.7867886E2,-8.262339E1,2.2931538E1,-4.9110832E1,-1.220545E1,-1.14778694E2,-1.4832869E1],"categories":[],"categories_nodes":[],"categories_segments":[],"categories_sizes":[],"default_left":[0,0,0,0,0,0,0,0,0,0,0,0,0,0,0],"id":15,"left_children":[1,3,5,7,9,11,13,-1,-1,-1,-1,-1,-1,-1,-1],"loss_changes":[1.7582725E8,2.2221846E8,2.9223504E7,1.5673697E9,5.5494304E8,3.6259736E7,6.996852E7,0E0,0E0,0E0,0E0,0E0,0E0,0E0,0E0],"parents":[2147483647,0,0,1,1,2,2,3,3,4,4,5,5,6,6],"right_children":[2,4,6,8,10,12,14,-1,-1,-1,-1,-1,-1,-1,-1],"split_conditions":[7E0,7.4E1,9E1,5E0,9E1,1.1E1,9.7E1,1.2548068E0,2.7867886E2,-8.262339E1,2.2931538E1,-4.9110832E1,-1.220545E1,-1.14778694E2,-1.4832869E1],"split_indices":[10,13,13,10,13,13,13,0,0,0,0,0,0,0,0],"split_type":[0,0,0,0,0,0,0,0,0,0,0,0,0,0,0],"sum_hessian":[1.0647E4,6.538E3,4.109E3,2.681E3,3.857E3,3.624E3,4.85E2,2.308E3,3.73E2,1.1E3,2.757E3,4.85E2,3.139E3,1.7E2,3.15E2],"tree_param":{"num_deleted":"0","num_feature":"14","num_nodes":"15","size_leaf_vector":"1"}},{"base_weights":[-5.412407E-1,-2.9730543E1,4.3221988E2,4.4769512E1,-2.1625676E2,5.240286E2,2.96434E2,1.1148477E1,-5.4395042E1,-1.2414452E1,-4.897534E1,3.7470688E1,1.1675842E2,7.460335E1,-1.6242508E1],"categories":[],"categories_nodes":[],"categories_segments":[],"categories_sizes":[],"default_left":[0,0,0,0,0,0,0,0,0,0,0,0,0,0,0],"id":16,"left_children":[1,3,5,7,9,11,13,-1,-1,-1,-1,-1,-1,-1,-1],"loss_changes":[1.3429763E8,1.384108E8,8.253448E6,1.493752E8,5.788731E7,3.6355376E7,3.4563684E7,0E0,0E0,0E0,0E0,0E0,0E0,0E0,0E0],"parents":[2147483647,0,0,1,1,2,2,3,3,4,4,5,5,6,6],"right_children":[2,4,6,8,10,12,14,-1,-1,-1,-1,-1,-1,-1,-1],"split_conditions":[1.21E2,5E0,1.5765037E4,1E0,7.3E1,1.3E2,1.31E2,1.1148477E1,-5.4395042E1,-1.2414452E1,-4.897534E1,3.7470688E1,1.1675842E2,7.460335E1,-1.6242508E1],"split_indices":[13,8,6,11,13,13,13,0,0,0,0,0,0,0,0],"split_type":[0,0,0,0,0,0,0,0,0,0,0,0,0,0,0],"sum_hessian":[1.063E4,9.959E3,6.71E2,7.117E3,2.842E3,3.99E2,2.72E2,6.518E3,5.99E2,1.695E3,1.147E3,2.57E2,1.42E2,1.6E2,1.12E2],"tree_param":{"num_deleted":"0","num_feature":"14","num_nodes":"15","size_leaf_vector":"1"}},{"base_weights":[-2.3904543E0,-7.0221596E1,1.77887E2,-1.0078745E2,3.7263284E2,7.827019E1,4.6736932E2,-9.218949E0,-6.2803356E1,3.55998E1,7.093525E1,1.983308E1,-3.5814365E1,9.39535E1,1.30844755E1],"categories":[],"categories_nodes":[],"categories_segments":[],"categories_sizes":[],"default_left":[0,0,0,0,0,0,0,0,0,0,0,0,0,0,0],"id":17,"left_children":[1,3,5,7,9,11,13,-1,-1,-1,-1,-1,-1,-1,-1],"loss_changes":[1.299706E8,1.0456621E8,8.376601E7,7.9042744E7,8.42452E6,6.251637E7,7.564075E7,0E0,0E0,0E0,0E0,0E0,0E0,0E0,0E0],"parents":[2147483647,0,0,1,1,2,2,3,3,4,4,5,5,6,6],"right_children":[2,4,6,8,10,12,14,-1,-1,-1,-1,-1,-1,-1,-1],"split_conditions":[8.8989514E2,1.21E2,2.3E1,1.1E2,5E0,1.678126E4,6E0,-9.218949E0,-6.2803356E1,3.55998E1,7.093525E1,1.983308E1,-3.5814365E1,9.39535E1,1.30844755E1],"split_indices":[5,13,7,13,8,6,10,0,0,0,0,0,0,0,0],"split_type":[0,0,0,0,0,0,0,0,0,0,0,0,0,0,0],"sum_hessian":[1.0627E4,7.722E3,2.905E3,7.224E3,4.98E2,2.162E3,7.43E2,6.76E3,4.64E2,3.41E2,1.57E2,1.774E3,3.88E2,4.19E2,3.24E2],"tree_param":{"num_deleted":"0","num_feature":"14","num_nodes":"15","size_leaf_vector":"1"}},{"base_weights":[2.66914E0,9.470521E1,-1.4098395E2,3.0823782E2,-3.7643623E1,-4.344625E2,-1.1730838E2,9.019518E0,2.8391537E2,-5.3980648E1,1.9929537E1,-2.120485E1,-8.488829E1,4.2105765E0,-2.3928984E1],"categories":[],"categories_nodes":[],"categories_segments":[],"categories_sizes":[],"default_left":[0,0,0,0,0,0,0,0,0,0,0,0,0,0,0],"id":18,"left_children":[1,3,5,7,9,11,13,-1,-1,-1,-1,-1,-1,-1,-1],"loss_changes":[1.4199053E8,1.8499802E8,2.9099568E7,1.1553389E9,3.1082256E8,1.9939396E7,4.2790484E7,0E0,0E0,0E0,0E0,0E0,0E0,0E0,0E0],"parents":[2147483647,0,0,1,1,2,2,3,3,4,4,5,5,6,6],"right_children":[2,4,6,8,10,12,14,-1,-1,-1,-1,-1,-1,-1,-1],"split_conditions":[7E0,7E1,7E0,5E0,9.1E1,1.4647018E4,9E0,9.019518E0,2.8391537E2,-5.3980648E1,1.9929537E1,-2.120485E1,-8.488829E1,4.2105765E0,-2.3928984E1],"split_indices":[10,13,13,10,13,6,10,0,0,0,0,0,0,0,0],"split_type":[0,0,0,0,0,0,0,0,0,0,0,0,0,0,0],"sum_hessian":[1.0738E4,6.545E3,4.193E3,2.504E3,4.041E3,3.12E2,3.881E3,2.234E3,2.7E2,1.348E3,2.693E3,1.49E2,1.63E2,1.267E3,2.614E3],"tree_param":{"num_deleted":"0","num_feature":"14","num_nodes":"15","size_leaf_vector":"1"}},{"base_weights":[-2.436969E-2,-1.0943828E2,7.758457E1,-4.191535E1,-2.812454E2,1.8773128E2,-5.528279E1,-1.17896595E1,1.9411016E1,-3.8302567E1,1.25292305E2,-4.133732E-1,7.138827E1,-8.1026695E1,1.8267618E1],"categories":[],"categories_nodes":[],"categories_segments":[],"categories_sizes":[],"default_left":[0,0,0,0,0,0,0,0,0,0,0,0,0,0,0],"id":19,"left_children":[1,3,5,7,9,11,13,-1,-1,-1,-1,-1,-1,-1,-1],"loss_changes":[9.072787E7,5.142652E7,9.148765E7,3.2451866E7,3.782747E7,2.4827296E8,3.3518368E8,0E0,0E0,0E0,0E0,0E0,0E0,0E0,0E0],"parents":[2147483647,0,0,1,1,2,2,3,3,4,4,5,5,6,6],"right_children":[2,4,6,8,10,12,14,-1,-1,-1,-1,-1,-1,-1,-1],"split_conditions":[1.5098725E4,5E0,7.5E1,1.484926E4,1.29E2,5.2E1,8.7E1,-1.17896595E1,1.9411016E1,-3.8302567E1,1.25292305E2,-4.133732E-1,7.138827E1,-8.1026695E1,1.8267618E1],"split_indices":[6,8,13,4,13,13,13,0,0,0,0,0,0,0,0],"split_type":[0,0,0,0,0,0,0,0,0,0,0,0,0,0,0],"sum_hessian":[1.0683E4,4.433E3,6.25E3,3.183E3,1.25E3,3.417E3,2.833E3,2.518E3,6.65E2,1.228E3,2.2E1,2.275E3,1.142E3,7.19E2,2.114E3],"tree_param":{"num_deleted":"0","num_feature":"14","num_nodes":"15","size_leaf_vector":"1"}},{"base_weights":[4.2321043E0,5.6688187E1,-1.26828E2,9.204215E1,-3.380408E2,-1.6414415E2,4.7085504E2,-6.5557704E0,2.1481031E1,3.6636177E1,-6.3911457E1,-1.54406805E1,-7.747331E1,1.6064671E2,4.4789898E1],"categories":[],"categories_nodes":[],"categories_segments":[],"categories_sizes":[],"default_left":[0,0,0,0,0,0,0,0,0,0,0,0,0,0,0],"id":20,"left_children":[1,3,5,7,9,11,13,-1,-1,-1,-1,-1,-1,-1,-1],"loss_changes":[7.267856E7,1.0538291E8,6.745518E7,7.882666E7,6.6739504E7,5.306396E7,1.60761E7,0E0,0E0,0E0,0E0,0E0,0E0,0E0,0E0],"parents":[2147483647,0,0,1,1,2,2,3,3,4,4,5,5,6,6],"right_children":[2,4,6,8,10,12,14,-1,-1,-1,-1,-1,-1,-1,-1],"split_conditions":[5E0,1E0,1.22E2,1.4590603E4,4E1,1.1E2,1.23E2,-6.5557704E0,2.1481031E1,3.6636177E1,-6.3911457E1,-1.54406805E1,-7.747331E1,1.6064671E2,4.4789898E1],"split_indices":[8,11,13,6,13,13,13,0,0,0,0,0,0,0,0],"split_type":[0,0,0,0,0,0,0,0,0,0,0,0,0,0,0],"sum_hessian":[1.057E4,7.549E3,3.021E3,6.929E3,6.2E2,2.844E3,1.77E2,2.45E3,4.479E3,1.32E2,4.88E2,2.607E3,2.37E2,2.1E1,1.56E2],"tree_param":{"num_deleted":"0","num_feature":"14","num_nodes":"15","size_leaf_vector":"1"}},{"base_weights":[7.8197203E0,1.0761187E2,-8.4613754E1,-1.7115198E1,4.34796E2,-6.392466E1,-3.9850665E2,7.4325533E0,-2.6084589E1,7.352292E1,-1.25478775E2,1.9626713E0,-1.7115791E1,-6.531913E1,-2.8899033E1],"categories":[],"categories_nodes":[],"categories_segments":[],"categories_sizes":[],"default_left":[0,0,0,0,0,0,0,0,0,0,0,0,0,0,0],"id":21,"left_children":[1,3,5,7,9,11,13,-1,-1,-1,-1,-1,-1,-1,-1],"loss_changes":[9.853723E7,2.0963128E8,3.599508E7,5.4024376E7,3.0564915E8,2.9910918E7,6.910604E6,0E0,0E0,0E0,0E0,0E0,0E0,0E0,0E0],"parents":[2147483647,0,0,1,1,2,2,3,3,4,4,5,5,6,6],"right_children":[2,4,6,8,10,12,14,-1,-1,-1,-1,-1,-1,-1,-1],"split_conditions":[6E0,5E0,1.7751328E4,5E0,1E0,9E0,1.6416426E4,7.4325533E0,-2.6084589E1,7.352292E1,-1.25478775E2,1.9626713E0,-1.7115791E1,-6.531913E1,-2.8899033E1],"split_indices":[10,10,3,8,11,10,6,0,0,0,0,0,0,0,0],"split_type":[0,0,0,0,0,0,0,0,0,0,0,0,0,0,0],"sum_hessian":[1.0681E4,5.136E3,5.545E3,3.719E3,1.417E3,5.203E3,3.42E2,2.656E3,1.063E3,1.283E3,1.34E2,2.477E3,2.726E3,1.98E2,1.44E2],"tree_param":{"num_deleted":"0","num_feature":"14","num_nodes":"15","size_leaf_vector":"1"}},{"base_weights":[1.3728684E0,9.090447E1,-8.250515E1,-1.8540558E1,3.8544183E2,-1.0468144E2,2.4004085E2,8.0437515E1,-1.2930403E1,2.0433177E2,-1.1530385E1,-7.5828323E0,-7.123394E1,5.4130802E1,-2.051108E1],"categories":[],"categories_nodes":[],"categories_segments":[],"categories_sizes":[],"default_left":[0,0,0,0,0,0,0,0,0,0,0,0,0,0,0],"id":22,"left_children":[1,3,5,7,9,11,13,-1,-1,-1,-1,-1,-1,-1,-1],"loss_changes":[8.038834E7,1.6691478E8,3.9551764E7,2.0977136E8,8.303889E8,1.0595865E8,2.740725E7,0E0,0E0,0E0,0E0,0E0,0E0,0E0,0E0],"parents":[2147483647,0,0,1,1,2,2,3,3,4,4,5,5,6,6],"right_children":[2,4,6,8,10,12,14,-1,-1,-1,-1,-1,-1,-1,-1],"split_conditions":[6E0,5E0,1.2E2,1.9E1,7.5E1,1.1E2,1.31E2,8.0437515E1,-1.2930403E1,2.0433177E2,-1.1530385E1,-7.5828323E0,-7.123394E1,5.4130802E1,-2.051108E1],"split_indices":[10,10,13,13,13,13,13,0,0,0,0,0,0,0,0],"split_type":[0,0,0,0,0,0,0,0,0,0,0,0,0,0,0],"sum_hessian":[1.0703E4,5.177E3,5.526E3,3.775E3,1.402E3,5.171E3,3.55E2,4.28E2,3.347E3,3.89E2,1.013E3,4.719E3,4.52E2,2.41E2,1.14E2],"tree_param":{"num_deleted":"0","num_feature":"14","num_nodes":"15","size_leaf_vector":"1"}},{"base_weights":[-1.766677E0,7.5344795E1,-7.351158E1,-2.0956284E1,3.2195758E2,-9.221157E1,1.9719472E2,6.92694E1,-1.2678968E1,1.8187207E2,-1.3031002E1,-6.6244955E0,-6.1870445E1,4.542094E1,-1.8478758E1],"categories":[],"categories_nodes":[],"categories_segments":[],"categories_sizes":[],"default_left":[0,0,0,0,0,0,0,0,0,0,0,0,0,0,0],"id":23,"left_children":[1,3,5,7,9,11,13,-1,-1,-1,-1,-1,-1,-1,-1],"loss_changes":[5.8928172E7,1.2192789E8,2.7946168E7,1.6889933E8,6.905875E8,8.155555E7,2.0207356E7,0E0,0E0,0E0,0E0,0E0,0E0,0E0,0E0],"parents":[2147483647,0,0,1,1,2,2,3,3,4,4,5,5,6,6],"right_children":[2,4,6,8,10,12,14,-1,-1,-1,-1,-1,-1,-1,-1],"split_conditions":[6E0,5E0,1.2E2,1.9E1,7.5E1,1.1E2,1.31E2,6.92694E1,-1.2678968E1,1.8187207E2,-1.3031002E1,-6.6244955E0,-6.1870445E1,4.542094E1,-1.8478758E1],"split_indices":[10,10,13,13,13,13,13,0,0,0,0,0,0,0,0],"split_type":[0,0,0,0,0,0,0,0,0,0,0,0,0,0,0],"sum_hessian":[1.065E4,5.133E3,5.517E3,3.692E3,1.441E3,5.161E3,3.56E2,4.52E2,3.24E3,3.95E2,1.046E3,4.698E3,4.63E2,2.41E2,1.15E2],"tree_param":{"num_deleted":"0","num_feature":"14","num_nodes":"15","size_leaf_vector":"1"}},{"base_weights":[-8.706419E-1,-4.2761787E1,1.516799E2,3.7582054E1,-2.3368846E2,4.1981567E2,-2.3109816E1,-5.8135405E0,5.590803E1,-1.7122726E1,-5.8561375E1,-1.3149917E1,7.370479E1,-3.859862E1,3.4791157E1],"categories":[],"categories_nodes":[],"categories_segments":[],"categories_sizes":[],"default_left":[0,0,0,0,0,0,0,0,0,0,0,0,0,0,0],"id":24,"left_children":[1,3,5,7,9,11,13,-1,-1,-1,-1,-1,-1,-1,-1],"loss_changes":[6.830538E7,1.2864294E8,1.0793289E8,2.0155965E8,5.6167744E7,7.946285E7,1.18875816E8,0E0,0E0,0E0,0E0,0E0,0E0,0E0,0E0],"parents":[2147483647,0,0,1,1,2,2,3,3,4,4,5,5,6,6],"right_children":[2,4,6,8,10,12,14,-1,-1,-1,-1,-1,-1,-1,-1],"split_conditions":[1E2,7.3E1,1.1E2,6.2E1,1E0,3E0,1.21E2,-5.8135405E0,5.590803E1,-1.7122726E1,-5.8561375E1,-1.3149917E1,7.370479E1,-3.859862E1,3.4791157E1],"split_indices":[13,13,13,13,9,10,13,0,0,0,0,0,0,0,0],"split_type":[0,0,0,0,0,0,0,0,0,0,0,0,0,0,0],"sum_hessian":[1.0687E4,8.385E3,2.302E3,5.902E3,2.483E3,9.08E2,1.394E3,4.895E3,1.007E3,1.75E3,7.33E2,2.19E2,6.89E2,7.16E2,6.78E2],"tree_param":{"num_deleted":"0","num_feature":"14","num_nodes":"15","size_leaf_vector":"1"}},{"base_weights":[5.179868E0,8.183201E1,-6.6309006E1,-9.333434E0,3.2177762E2,-4.704503E1,-3.467365E2,6.769583E1,-1.0081184E1,1.7885097E2,2.0413177E0,-1.0894448E1,1.2736022E1,-1.3384533E1,-1.1295865E2],"categories":[],"categories_nodes":[],"categories_segments":[],"categories_sizes":[],"default_left":[0,0,0,0,0,0,0,0,0,0,0,0,0,0,0],"id":25,"left_children":[1,3,5,7,9,11,13,-1,-1,-1,-1,-1,-1,-1,-1],"loss_changes":[5.863659E7,1.1295885E8,2.9897568E7,1.4539955E8,4.783788E8,3.0483716E7,4.7108532E7,0E0,0E0,0E0,0E0,0E0,0E0,0E0,0E0],"parents":[2147483647,0,0,1,1,2,2,3,3,4,4,5,5,6,6],"right_children":[2,4,6,8,10,12,14,-1,-1,-1,-1,-1,-1,-1,-1],"split_conditions":[6E0,5E0,1.7751328E4,1.9E1,7.1E1,1.01E2,1.1E2,6.769583E1,-1.0081184E1,1.7885097E2,2.0413177E0,-1.0894448E1,1.2736022E1,-1.3384533E1,-1.1295865E2],"split_indices":[10,10,3,13,13,13,13,0,0,0,0,0,0,0,0],"split_type":[0,0,0,0,0,0,0,0,0,0,0,0,0,0,0],"sum_hessian":[1.0699E4,5.163E3,5.536E3,3.742E3,1.421E3,5.181E3,3.55E2,4.28E2,3.314E3,3.08E2,1.113E3,4.089E3,1.092E3,2.48E2,1.07E2],"tree_param":{"num_deleted":"0","num_feature":"14","num_nodes":"15","size_leaf_vector":"1"}},{"base_weights":[6.367719E0,5.041644E1,-1.0127645E2,7.682194E1,-2.394442E2,-1.8624829E2,2.276959E2,2.4246723E1,-3.4445143E0,-7.932669E1,3.128918E0,-1.1713902E1,-6.302887E1,1.9056892E2,1.4793557E1],"categories":[],"categories_nodes":[],"categories_segments":[],"categories_sizes":[],"default_left":[0,0,0,0,0,0,0,0,0,0,0,0,0,0,0],"id":26,"left_children":[1,3,5,7,9,11,13,-1,-1,-1,-1,-1,-1,-1,-1],"loss_changes":[5.0386988E7,5.7730636E7,8.62908E7,8.36437E7,6.5225828E7,7.1909176E7,8.968604E7,0E0,0E0,0E0,0E0,0E0,0E0,0E0,0E0],"parents":[2147483647,0,0,1,1,2,2,3,3,4,4,5,5,6,6],"right_children":[2,4,6,8,10,12,14,-1,-1,-1,-1,-1,-1,-1,-1],"split_conditions":[5E0,1E0,1.01E2,6E0,3E0,8E1,1.03E2,2.4246723E1,-3.4445143E0,-7.932669E1,3.128918E0,-1.1713902E1,-6.302887E1,1.9056892E2,1.4793557E1],"split_indices":[8,11,13,10,8,13,13,0,0,0,0,0,0,0,0],"split_type":[0,0,0,0,0,0,0,0,0,0,0,0,0,0,0],"sum_hessian":[1.0625E4,7.54E3,3.085E3,6.911E3,6.29E2,2.452E3,6.33E2,3.269E3,3.642E3,2.53E2,3.76E2,1.894E3,5.58E2,4.9E1,5.84E2],"tree_param":{"num_deleted":"0","num_feature":"14","num_nodes":"15","size_leaf_vector":"1"}},{"base_weights":[1.3436848E0,-3.8662357E1,1.0505927E2,3.151528E1,-2.6820114E2,7.145069E2,6.539947E1,-5.055792E0,5.245592E1,-2.4262997E1,-9.20709E1,1.8998693E1,2.8955057E2,1.4073819E1,-4.1409306E1],"categories":[],"categories_nodes":[],"categories_segments":[],"categories_sizes":[],"default_left":[0,0,0,0,0,0,0,0,0,0,0,0,0,0,0],"id":27,"left_children":[1,3,5,7,9,11,13,-1,-1,-1,-1,-1,-1,-1,-1],"loss_changes":[4.4610856E7,1.249889E8,7.230034E7,1.6452334E8,6.329024E7,1.6337542E8,5.1729316E7,0E0,0E0,0E0,0E0,0E0,0E0,0E0,0E0],"parents":[2147483647,0,0,1,1,2,2,3,3,4,4,5,5,6,6],"right_children":[2,4,6,8,10,12,14,-1,-1,-1,-1,-1,-1,-1,-1],"split_conditions":[9.3E1,7.3E1,9.5E1,6.3E1,1.7600008E4,1.6476666E4,1.7615025E4,-5.055792E0,5.245592E1,-2.4262997E1,-9.20709E1,1.8998693E1,2.8955057E2,1.4073819E1,-4.1409306E1],"split_indices":[13,13,13,13,0,6,3,0,0,0,0,0,0,0,0],"split_type":[0,0,0,0,0,0,0,0,0,0,0,0,0,0,0],"sum_hessian":[1.075E4,7.758E3,2.992E3,5.942E3,1.816E3,1.82E2,2.81E3,5.011E3,9.31E2,1.564E3,2.52E2,1.35E2,4.7E1,2.514E3,2.96E2],"tree_param":{"num_deleted":"0","num_feature":"14","num_nodes":"15","size_leaf_vector":"1"}},{"base_weights":[4.685051E0,4.337218E1,-1.0307018E2,8.783054E1,-1.0505879E2,-5.9913445E1,-3.594783E2,-6.0128145E0,2.3784935E1,2.9662594E1,-3.0245272E1,-9.579871E-1,-3.2860516E1,-1.11151855E2,5.9502816E0],"categories":[],"categories_nodes":[],"categories_segments":[],"categories_sizes":[],"default_left":[0,0,0,0,0,0,0,0,0,0,0,0,0,0,0],"id":28,"left_children":[1,3,5,7,9,11,13,-1,-1,-1,-1,-1,-1,-1,-1],"loss_changes":[4.4353732E7,5.1669228E7,3.108632E7,8.290548E7,8.350928E7,2.5363422E7,8.6472296E7,0E0,0E0,0E0,0E0,0E0,0E0,0E0,0E0],"parents":[2147483647,0,0,1,1,2,2,3,3,4,4,5,5,6,6],"right_children":[2,4,6,8,10,12,14,-1,-1,-1,-1,-1,-1,-1,-1],"split_conditions":[9E0,1.6551504E4,1.50741045E4,1.5262944E4,4E1,9E1,7E1,-6.0128145E0,2.3784935E1,2.9662594E1,-3.0245272E1,-9.579871E-1,-3.2860516E1,-1.11151855E2,5.9502816E0],"split_indices":[10,6,4,6,13,13,13,0,0,0,0,0,0,0,0],"split_type":[0,0,0,0,0,0,0,0,0,0,0,0,0,0,0],"sum_hessian":[1.0638E4,7.828E3,2.81E3,6.024E3,1.804E3,2.406E3,4.04E2,2.577E3,3.447E3,5.13E2,1.291E3,1.911E3,4.95E2,1.76E2,2.28E2],"tree_param":{"num_deleted":"0","num_feature":"14","num_nodes":"15","size_leaf_vector":"1"}},{"base_weights":[3.9099438E0,2.8967028E1,-1.4334412E2,9.6255585E1,-3.3785473E1,-2.2747806E2,1.8463487E2,3.1323955E0,3.8060104E1,-1.3892068E1,4.97406E0,1.1636096E1,-4.995033E1,1.4856998E2,1.3850771E1],"categories":[],"categories_nodes":[],"categories_segments":[],"categories_sizes":[],"default_left":[0,0,0,0,0,0,0,0,0,0,0,0,0,0,0],"id":29,"left_children":[1,3,5,7,9,11,13,-1,-1,-1,-1,-1,-1,-1,-1],"loss_changes":[3.9069468E7,3.8211252E7,4.252148E7,6.4340376E7,2.6369644E7,6.670783E7,2.326762E7,0E0,0E0,0E0,0E0,0E0,0E0,0E0,0E0],"parents":[2147483647,0,0,1,1,2,2,3,3,4,4,5,5,6,6],"right_children":[2,4,6,8,10,12,14,-1,-1,-1,-1,-1,-1,-1,-1],"split_conditions":[6E0,6E0,1.01E2,9.1E1,3E0,4E1,1.03E2,3.1323955E0,3.8060104E1,-1.3892068E1,4.97406E0,1.1636096E1,-4.995033E1,1.4856998E2,1.3850771E1],"split_indices":[8,10,13,13,8,13,13,0,0,0,0,0,0,0,0],"split_type":[0,0,0,0,0,0,0,0,0,0,0,0,0,0,0],"sum_hessian":[1.0587E4,9.048E3,1.539E3,4.366E3,4.682E3,1.225E3,3.14E2,3.246E3,1.12E3,2.288E3,2.394E3,4.25E2,8E2,2.1E1,2.93E2],"tree_param":{"num_deleted":"0","num_feature":"14","num_nodes":"15","size_leaf_vector":"1"}},{"base_weights":[-1.6599741E0,2.0894716E1,-1.3832425E2,3.9840958E1,-1.9461284E2,-2.129043E2,1.5734657E2,1.4661505E1,-3.5636168E0,-7.25293E1,2.8374662E0,9.47431E0,-4.605417E1,1.3238818E2,9.419131E0],"categories":[],"categories_nodes":[],"categories_segments":[],"categories_sizes":[],"default_left":[0,0,0,0,0,0,0,0,0,0,0,0,0,0,0],"id":30,"left_children":[1,3,5,7,9,11,13,-1,-1,-1,-1,-1,-1,-1,-1],"loss_changes":[3.3091414E7,3.7630384E7,3.3560904E7,4.43764E7,6.1879024E7,5.3789444E7,2.25884E7,0E0,0E0,0E0,0E0,0E0,0E0,0E0,0E0],"parents":[2147483647,0,0,1,1,2,2,3,3,4,4,5,5,6,6],"right_children":[2,4,6,8,10,12,14,-1,-1,-1,-1,-1,-1,-1,-1],"split_conditions":[6E0,1E0,1.01E2,6E0,3E0,4E1,1.03E2,1.4661505E1,-3.5636168E0,-7.25293E1,2.8374662E0,9.47431E0,-4.605417E1,1.3238818E2,9.419131E0],"split_indices":[8,11,13,10,8,13,13,0,0,0,0,0,0,0,0],"split_type":[0,0,0,0,0,0,0,0,0,0,0,0,0,0,0],"sum_hessian":[1.0734E4,9.214E3,1.52E3,8.47E3,7.44E2,1.214E3,3.06E2,3.983E3,4.487E3,2.69E2,4.75E2,4.22E2,7.92E2,2.5E1,2.81E2],"tree_param":{"num_deleted":"0","num_feature":"14","num_nodes":"15","size_leaf_vector":"1"}},{"base_weights":[-7.4881673E0,5.9503326E0,-2.691706E2,-8.490039E0,2.0559097E2,-5.233112E2,-3.396557E1,1.4369798E0,-3.390901E1,2.0747538E1,5.6135242E1,-7.942898E1,2.1549919E2,2.2509929E2,-3.250367E1],"categories":[],"categories_nodes":[],"categories_segments":[],"categories_sizes":[],"default_left":[0,0,0,0,0,0,0,0,0,0,0,0,0,0,0],"id":31,"left_children":[1,3,5,7,9,11,13,-1,-1,-1,-1,-1,-1,-1,-1],"loss_changes":[3.7420976E7,2.9181402E7,3.1055544E7,4.9148544E7,6.60986E6,6.158973E7,1.1137541E8,0E0,0E0,0E0,0E0,0E0,0E0,0E0,0E0],"parents":[2147483647,0,0,1,1,2,2,3,3,4,4,5,5,6,6],"right_children":[2,4,6,8,10,12,14,-1,-1,-1,-1,-1,-1,-1,-1],"split_conditions":[1.7010102E4,1.21E2,9.3E1,1.1E2,1.34E2,2.3E1,9.5E1,1.4369798E0,-3.390901E1,2.0747538E1,5.6135242E1,-7.942898E1,2.1549919E2,2.2509929E2,-3.250367E1],"split_indices":[6,13,13,13,13,7,13,0,0,0,0,0,0,0,0],"split_type":[0,0,0,0,0,0,0,0,0,0,0,0,0,0,0],"sum_hessian":[1.064E4,1.0121E4,5.19E2,9.439E3,6.82E2,2.49E2,2.7E2,8.771E3,6.68E2,5.85E2,9.7E1,2.38E2,1.1E1,2.9E1,2.41E2],"tree_param":{"num_deleted":"0","num_feature":"14","num_nodes":"15","size_leaf_vector":"1"}},{"base_weights":[-6.842803E0,-3.3481594E1,8.888104E1,2.7347776E1,-1.5659874E2,3.1643423E2,-5.815678E1,-5.008996E0,6.938915E1,-1.6057745E1,-6.318771E1,-5.5269604E0,8.4012146E1,-3.2823772E1,2.0214684E1],"categories":[],"categories_nodes":[],"categories_segments":[],"categories_sizes":[],"default_left":[0,0,0,0,0,0,0,0,0,0,0,0,0,0,0],"id":32,"left_children":[1,3,5,7,9,11,13,-1,-1,-1,-1,-1,-1,-1,-1],"loss_changes":[2.705431E7,6.2161576E7,7.729709E7,1.959419E8,2.7345152E7,1.15067544E8,6.2442868E7,0E0,0E0,0E0,0E0,0E0,0E0,0E0,0E0],"parents":[2147483647,0,0,1,1,2,2,3,3,4,4,5,5,6,6],"right_children":[2,4,6,8,10,12,14,-1,-1,-1,-1,-1,-1,-1,-1],"split_conditions":[1E2,7E1,1.1E2,6.3E1,1E0,1.5307515E4,1.21E2,-5.008996E0,6.938915E1,-1.6057745E1,-6.318771E1,-5.5269604E0,8.4012146E1,-3.2823772E1,2.0214684E1],"split_indices":[13,13,13,13,11,6,13,0,0,0,0,0,0,0,0],"split_type":[0,0,0,0,0,0,0,0,0,0,0,0,0,0,0],"sum_hessian":[1.0608E4,8.299E3,2.309E3,5.555E3,2.744E3,9.06E2,1.403E3,4.925E3,6.3E2,2.534E3,2.1E2,4.48E2,4.58E2,7.28E2,6.75E2],"tree_param":{"num_deleted":"0","num_feature":"14","num_nodes":"15","size_leaf_vector":"1"}},{"base_weights":[-1.6284598E0,2.1898079E1,-1.195096E2,-4.3677586E1,9.4507805E1,-2.9261188E2,9.721317E0,-1.5806739E1,2.5929742E0,3.3554714E1,-2.9052246E0,-5.1450054E1,-9.445326E0,4.2316044E1,-1.2380491E1],"categories":[],"categories_nodes":[],"categories_segments":[],"categories_sizes":[],"default_left":[0,0,0,0,0,0,0,0,0,0,0,0,0,0,0],"id":33,"left_children":[1,3,5,7,9,11,13,-1,-1,-1,-1,-1,-1,-1,-1],"loss_changes":[2.9784322E7,4.2631264E7,3.9972876E7,2.4839466E7,8.620047E7,1.9368092E7,3.6255E7,0E0,0E0,0E0,0E0,0E0,0E0,0E0,0E0],"parents":[2147483647,0,0,1,1,2,2,3,3,4,4,5,5,6,6],"right_children":[2,4,6,8,10,12,14,-1,-1,-1,-1,-1,-1,-1,-1],"split_conditions":[1.6566291E4,1.5262944E4,3E0,1.4E1,6E0,2E1,4E0,-1.5806739E1,2.5929742E0,3.3554714E1,-2.9052246E0,-5.1450054E1,-9.445326E0,4.2316044E1,-1.2380491E1],"split_indices":[6,6,8,7,10,7,8,0,0,0,0,0,0,0,0],"split_type":[0,0,0,0,0,0,0,0,0,0,0,0,0,0,0],"sum_hessian":[1.0738E4,8.952E3,1.786E3,4.704E3,4.248E3,7.63E2,1.023E3,2.066E3,2.638E3,1.722E3,2.526E3,4.96E2,2.67E2,2.54E2,7.69E2],"tree_param":{"num_deleted":"0","num_feature":"14","num_nodes":"15","size_leaf_vector":"1"}},{"base_weights":[3.8518708E0,-2.65091E1,8.647108E1,3.5748398E1,-1.7905925E2,1.0883978E3,5.3509632E1,-3.6733391E0,7.7906654E1,-2.5686008E1,5.6027035E1,2.5161942E1,4.741055E2,1.1033568E1,-3.7349712E1],"categories":[],"categories_nodes":[],"categories_segments":[],"categories_sizes":[],"default_left":[0,0,0,0,0,0,0,0,0,0,0,0,0,0,0],"id":34,"left_children":[1,3,5,7,9,11,13,-1,-1,-1,-1,-1,-1,-1,-1],"loss_changes":[2.6908856E7,7.450997E7,9.515758E7,2.1148643E8,3.603731E7,2.1818874E8,3.3582196E7,0E0,0E0,0E0,0E0,0E0,0E0,0E0,0E0],"parents":[2147483647,0,0,1,1,2,2,3,3,4,4,5,5,6,6],"right_children":[2,4,6,8,10,12,14,-1,-1,-1,-1,-1,-1,-1,-1],"split_conditions":[9.4E1,6.9E1,9.5E1,6.3E1,1.1E1,1.6206483E4,1.7751328E4,-3.6733391E0,7.7906654E1,-2.5686008E1,5.6027035E1,2.5161942E1,4.741055E2,1.1033568E1,-3.7349712E1],"split_indices":[13,13,13,13,10,6,3,0,0,0,0,0,0,0,0],"split_type":[0,0,0,0,0,0,0,0,0,0,0,0,0,0,0],"sum_hessian":[1.0726E4,7.844E3,2.882E3,5.571E3,2.273E3,9.1E1,2.791E3,5.014E3,5.57E2,2.185E3,8.8E1,6.9E1,2.2E1,2.543E3,2.48E2],"tree_param":{"num_deleted":"0","num_feature":"14","num_nodes":"15","size_leaf_vector":"1"}},{"base_weights":[6.8295634E-1,3.0787909E1,-7.495496E1,-2.4811474E1,1.1484113E2,-1.2740387E2,1.4065002E2,3.3782356E0,-3.569091E1,-7.5335106E1,1.840784E1,5.4457197E0,-2.6136948E1,6.3935E1,-7.2079897E0],"categories":[],"categories_nodes":[],"categories_segments":[],"categories_sizes":[],"default_left":[0,0,0,0,0,0,0,0,0,0,0,0,0,0,0],"id":35,"left_children":[1,3,5,7,9,11,13,-1,-1,-1,-1,-1,-1,-1,-1],"loss_changes":[2.4256666E7,3.5611824E7,3.430929E7,6.145349E7,6.859251E7,3.3563856E7,4.3294984E7,0E0,0E0,0E0,0E0,0E0,0E0,0E0,0E0],"parents":[2147483647,0,0,1,1,2,2,3,3,4,4,5,5,6,6],"right_children":[2,4,6,8,10,12,14,-1,-1,-1,-1,-1,-1,-1,-1],"split_conditions":[5E0,3E0,1.01E2,1.6566291E4,7E0,3.7E1,1.1E2,3.3782356E0,-3.569091E1,-7.5335106E1,1.840784E1,5.4457197E0,-2.6136948E1,6.3935E1,-7.2079897E0],"split_indices":[8,8,13,6,13,13,13,0,0,0,0,0,0,0,0],"split_type":[0,0,0,0,0,0,0,0,0,0,0,0,0,0,0],"sum_hessian":[1.0651E4,7.619E3,3.032E3,4.586E3,3.033E3,2.439E3,5.93E2,3.824E3,7.62E2,1.28E2,2.905E3,7.82E2,1.657E3,2.07E2,3.86E2],"tree_param":{"num_deleted":"0","num_feature":"14","num_nodes":"15","size_leaf_vector":"1"}}]},"name":"gbtree"},"learner_model_param":{"base_score":"[1.5458436E4]","boost_from_average":"1","num_class":"0","num_feature":"14","num_target":"1"},"objective":{"name":"reg:squarederror","reg_loss_param":{"scale_pos_weight":"1"}}},"version":[3,3,0]}